power vbias out
-75.000  0.500  -145.634
-75.000  0.510  -142.737
-75.000  0.520  -139.764
-75.000  0.530  -136.756
-75.000  0.540  -133.740
-75.000  0.550  -130.733
-75.000  0.560  -127.749
-75.000  0.570  -124.802
-75.000  0.580  -121.910
-75.000  0.590  -119.095
-75.000  0.600  -116.391
-75.000  0.610  -113.842
-75.000  0.620  -111.514
-75.000  0.630  -109.498
-75.000  0.640  -107.913
-75.000  0.650  -106.910
-75.000  0.660  -106.653
-75.000  0.670  -107.280
-75.000  0.680  -108.855
-75.000  0.690  -111.324
-75.000  0.700  -114.531
-75.000  0.710  -118.256
-75.000  0.720  -122.276
-75.000  0.730  -126.394
-75.000  0.740  -130.460
-75.000  0.750  -134.370
-75.000  0.760  -138.058
-75.000  0.770  -141.493
-75.000  0.780  -144.664
-75.000  0.790  -147.576
-75.000  0.800  -150.242
-70.000  0.500  -135.624
-70.000  0.510  -132.728
-70.000  0.520  -129.754
-70.000  0.530  -126.746
-70.000  0.540  -123.730
-70.000  0.550  -120.724
-70.000  0.560  -117.740
-70.000  0.570  -114.794
-70.000  0.580  -111.902
-70.000  0.590  -109.088
-70.000  0.600  -106.385
-70.000  0.610  -103.838
-70.000  0.620  -101.511
-70.000  0.630  -99.496
-70.000  0.640  -97.913
-70.000  0.650  -96.912
-70.000  0.660  -96.656
-70.000  0.670  -97.283
-70.000  0.680  -98.857
-70.000  0.690  -101.326
-70.000  0.700  -104.532
-70.000  0.710  -108.256
-70.000  0.720  -112.275
-70.000  0.730  -116.394
-70.000  0.740  -120.460
-70.000  0.750  -124.370
-70.000  0.760  -128.058
-70.000  0.770  -131.493
-70.000  0.780  -134.664
-70.000  0.790  -137.576
-70.000  0.800  -140.242
-65.000  0.500  -125.595
-65.000  0.510  -122.697
-65.000  0.520  -119.724
-65.000  0.530  -116.716
-65.000  0.540  -113.701
-65.000  0.550  -110.695
-65.000  0.560  -107.713
-65.000  0.570  -104.768
-65.000  0.580  -101.879
-65.000  0.590  -99.067
-65.000  0.600  -96.367
-65.000  0.610  -93.823
-65.000  0.620  -91.502
-65.000  0.630  -89.492
-65.000  0.640  -87.915
-65.000  0.650  -86.918
-65.000  0.660  -86.665
-65.000  0.670  -87.292
-65.000  0.680  -88.864
-65.000  0.690  -91.330
-65.000  0.700  -94.533
-65.000  0.710  -98.257
-65.000  0.720  -102.275
-65.000  0.730  -106.393
-65.000  0.740  -110.459
-65.000  0.750  -114.369
-65.000  0.760  -118.058
-65.000  0.770  -121.492
-65.000  0.780  -124.663
-65.000  0.790  -127.575
-65.000  0.800  -130.242
-60.000  0.500  -115.501
-60.000  0.510  -112.602
-60.000  0.520  -109.628
-60.000  0.530  -106.622
-60.000  0.540  -103.609
-60.000  0.550  -100.607
-60.000  0.560  -97.628
-60.000  0.570  -94.688
-60.000  0.580  -91.805
-60.000  0.590  -89.001
-60.000  0.600  -86.310
-60.000  0.610  -83.779
-60.000  0.620  -81.472
-60.000  0.630  -79.479
-60.000  0.640  -77.919
-60.000  0.650  -76.938
-60.000  0.660  -76.693
-60.000  0.670  -77.321
-60.000  0.680  -78.886
-60.000  0.690  -81.343
-60.000  0.700  -84.539
-60.000  0.710  -88.257
-60.000  0.720  -92.274
-60.000  0.730  -96.391
-60.000  0.740  -100.458
-60.000  0.750  -104.368
-60.000  0.760  -108.057
-60.000  0.770  -111.491
-60.000  0.780  -114.663
-60.000  0.790  -117.575
-60.000  0.800  -120.242
-55.000  0.500  -105.206
-55.000  0.510  -102.301
-55.000  0.520  -99.328
-55.000  0.530  -96.326
-55.000  0.540  -93.321
-55.000  0.550  -90.328
-55.000  0.560  -87.362
-55.000  0.570  -84.438
-55.000  0.580  -81.574
-55.000  0.590  -78.795
-55.000  0.600  -76.135
-55.000  0.610  -73.642
-55.000  0.620  -71.382
-55.000  0.630  -69.442
-55.000  0.640  -67.935
-55.000  0.650  -67.000
-55.000  0.660  -66.782
-55.000  0.670  -67.411
-55.000  0.680  -68.956
-55.000  0.690  -71.385
-55.000  0.700  -74.556
-55.000  0.710  -78.260
-55.000  0.720  -82.270
-55.000  0.730  -86.385
-55.000  0.740  -90.452
-55.000  0.750  -94.363
-55.000  0.760  -98.053
-55.000  0.770  -101.489
-55.000  0.780  -104.661
-55.000  0.790  -107.573
-55.000  0.800  -110.240
-50.000  0.500  -94.282
-50.000  0.510  -91.364
-50.000  0.520  -88.395
-50.000  0.530  -85.410
-50.000  0.540  -82.430
-50.000  0.550  -79.470
-50.000  0.560  -76.546
-50.000  0.570  -73.673
-50.000  0.580  -70.874
-50.000  0.590  -68.177
-50.000  0.600  -65.619
-50.000  0.610  -63.249
-50.000  0.620  -61.133
-50.000  0.630  -59.352
-50.000  0.640  -58.003
-50.000  0.650  -57.196
-50.000  0.660  -57.050
-50.000  0.670  -57.681
-50.000  0.680  -59.168
-50.000  0.690  -61.513
-50.000  0.700  -64.612
-50.000  0.710  -68.269
-50.000  0.720  -72.258
-50.000  0.730  -76.367
-50.000  0.740  -80.435
-50.000  0.750  -84.349
-50.000  0.760  -88.042
-50.000  0.770  -91.480
-50.000  0.780  -94.654
-50.000  0.790  -97.568
-50.000  0.800  -100.237
-45.000  0.500  -81.465
-45.000  0.510  -78.547
-45.000  0.520  -75.621
-45.000  0.530  -72.706
-45.000  0.540  -69.822
-45.000  0.550  -66.985
-45.000  0.560  -64.213
-45.000  0.570  -61.530
-45.000  0.580  -58.964
-45.000  0.590  -56.549
-45.000  0.600  -54.326
-45.000  0.610  -52.341
-45.000  0.620  -50.643
-45.000  0.630  -49.283
-45.000  0.640  -48.314
-45.000  0.650  -47.795
-45.000  0.660  -47.801
-45.000  0.670  -48.425
-45.000  0.680  -49.768
-45.000  0.690  -51.895
-45.000  0.700  -54.786
-45.000  0.710  -58.303
-45.000  0.720  -62.222
-45.000  0.730  -66.311
-45.000  0.740  -70.380
-45.000  0.750  -74.304
-45.000  0.760  -78.007
-45.000  0.770  -81.454
-45.000  0.780  -84.634
-45.000  0.790  -87.553
-45.000  0.800  -90.224
-40.000  0.500  -63.792
-40.000  0.510  -61.099
-40.000  0.520  -58.478
-40.000  0.530  -55.948
-40.000  0.540  -53.531
-40.000  0.550  -51.247
-40.000  0.560  -49.120
-40.000  0.570  -47.169
-40.000  0.580  -45.412
-40.000  0.590  -43.865
-40.000  0.600  -42.535
-40.000  0.610  -41.430
-40.000  0.620  -40.551
-40.000  0.630  -39.902
-40.000  0.640  -39.494
-40.000  0.650  -39.355
-40.000  0.660  -39.536
-40.000  0.670  -40.116
-40.000  0.680  -41.202
-40.000  0.690  -42.909
-40.000  0.700  -45.327
-40.000  0.710  -48.453
-40.000  0.720  -52.143
-40.000  0.730  -56.146
-40.000  0.740  -60.212
-40.000  0.750  -64.161
-40.000  0.760  -67.895
-40.000  0.770  -71.368
-40.000  0.780  -74.569
-40.000  0.790  -77.503
-40.000  0.800  -80.186
-35.000  0.500  -41.299
-35.000  0.510  -39.950
-35.000  0.520  -38.725
-35.000  0.530  -37.620
-35.000  0.540  -36.631
-35.000  0.550  -35.755
-35.000  0.560  -34.988
-35.000  0.570  -34.325
-35.000  0.580  -33.759
-35.000  0.590  -33.284
-35.000  0.600  -32.893
-35.000  0.610  -32.582
-35.000  0.620  -32.350
-35.000  0.630  -32.206
-35.000  0.640  -32.168
-35.000  0.650  -32.264
-35.000  0.660  -32.539
-35.000  0.670  -33.050
-35.000  0.680  -33.867
-35.000  0.690  -35.079
-35.000  0.700  -36.797
-35.000  0.710  -39.134
-35.000  0.720  -42.153
-35.000  0.730  -45.770
-35.000  0.740  -49.726
-35.000  0.750  -53.718
-35.000  0.760  -57.538
-35.000  0.770  -61.094
-35.000  0.780  -64.361
-35.000  0.790  -67.344
-35.000  0.800  -70.063
-30.000  0.500  -27.553
-30.000  0.510  -27.287
-30.000  0.520  -27.050
-30.000  0.530  -26.838
-30.000  0.540  -26.649
-30.000  0.550  -26.480
-30.000  0.560  -26.331
-30.000  0.570  -26.200
-30.000  0.580  -26.088
-30.000  0.590  -25.996
-30.000  0.600  -25.930
-30.000  0.610  -25.895
-30.000  0.620  -25.900
-30.000  0.630  -25.957
-30.000  0.640  -26.081
-30.000  0.650  -26.294
-30.000  0.660  -26.622
-30.000  0.670  -27.092
-30.000  0.680  -27.737
-30.000  0.690  -28.599
-30.000  0.700  -29.735
-30.000  0.710  -31.223
-30.000  0.720  -33.167
-30.000  0.730  -35.680
-30.000  0.740  -38.830
-30.000  0.750  -42.518
-30.000  0.760  -46.417
-30.000  0.770  -50.188
-30.000  0.780  -53.666
-30.000  0.790  -56.816
-30.000  0.800  -59.659
-25.000  0.500  -20.331
-25.000  0.510  -20.278
-25.000  0.520  -20.231
-25.000  0.530  -20.190
-25.000  0.540  -20.158
-25.000  0.550  -20.136
-25.000  0.560  -20.126
-25.000  0.570  -20.129
-25.000  0.580  -20.148
-25.000  0.590  -20.186
-25.000  0.600  -20.248
-25.000  0.610  -20.338
-25.000  0.620  -20.466
-25.000  0.630  -20.642
-25.000  0.640  -20.874
-25.000  0.650  -21.171
-25.000  0.660  -21.543
-25.000  0.670  -21.996
-25.000  0.680  -22.544
-25.000  0.690  -23.203
-25.000  0.700  -23.998
-25.000  0.710  -24.959
-25.000  0.720  -26.130
-25.000  0.730  -27.564
-25.000  0.740  -29.334
-25.000  0.750  -31.538
-25.000  0.760  -34.286
-25.000  0.770  -37.615
-25.000  0.780  -41.290
-25.000  0.790  -44.907
-25.000  0.800  -48.201
-20.000  0.500  -14.632
-20.000  0.510  -14.656
-20.000  0.520  -14.689
-20.000  0.530  -14.731
-20.000  0.540  -14.784
-20.000  0.550  -14.851
-20.000  0.560  -14.933
-20.000  0.570  -15.035
-20.000  0.580  -15.159
-20.000  0.590  -15.308
-20.000  0.600  -15.482
-20.000  0.610  -15.684
-20.000  0.620  -15.913
-20.000  0.630  -16.172
-20.000  0.640  -16.462
-20.000  0.650  -16.787
-20.000  0.660  -17.151
-20.000  0.670  -17.560
-20.000  0.680  -18.020
-20.000  0.690  -18.538
-20.000  0.700  -19.123
-20.000  0.710  -19.786
-20.000  0.720  -20.539
-20.000  0.730  -21.398
-20.000  0.740  -22.384
-20.000  0.750  -23.524
-20.000  0.760  -24.860
-20.000  0.770  -26.447
-20.000  0.780  -28.359
-20.000  0.790  -30.687
-20.000  0.800  -33.495
-15.000  0.500  -10.041
-15.000  0.510  -10.153
-15.000  0.520  -10.273
-15.000  0.530  -10.401
-15.000  0.540  -10.539
-15.000  0.550  -10.686
-15.000  0.560  -10.843
-15.000  0.570  -11.011
-15.000  0.580  -11.192
-15.000  0.590  -11.384
-15.000  0.600  -11.591
-15.000  0.610  -11.813
-15.000  0.620  -12.051
-15.000  0.630  -12.307
-15.000  0.640  -12.581
-15.000  0.650  -12.877
-15.000  0.660  -13.194
-15.000  0.670  -13.535
-15.000  0.680  -13.902
-15.000  0.690  -14.296
-15.000  0.700  -14.722
-15.000  0.710  -15.182
-15.000  0.720  -15.681
-15.000  0.730  -16.224
-15.000  0.740  -16.817
-15.000  0.750  -17.467
-15.000  0.760  -18.183
-15.000  0.770  -18.977
-15.000  0.780  -19.866
-15.000  0.790  -20.868
-15.000  0.800  -22.005
 
